{"layers": [{"batch_input_shape": [null, 60], "class_name": "Dense", "units": 5, "activation": "softmax", "weights": [[[1.3647440671920776, -0.25940680503845215, 0.10102863609790802, -1.3392285108566284, 0.2753318250179291], [1.211499810218811, -0.22844181954860687, 0.7195718288421631, -0.992200493812561, -0.8392925262451172], [0.0007103903917595744, -0.42608824372291565, -0.12466759979724884, 0.21110838651657104, 0.4344788193702698], [-0.466320276260376, -1.0631253719329834, -0.3009723424911499, -0.1280592530965805, 1.3647606372833252], [0.30822262167930603, 0.20421335101127625, -0.8047776818275452, 0.6551441550254822, -0.12013751268386841], [-0.8904483318328857, -0.38307133316993713, -0.426021546125412, 1.1942332983016968, -0.06940120458602905], [0.7354620099067688, -0.006727591622620821, 0.19951288402080536, -0.0029684652108699083, -0.08868035674095154], [-0.24752698838710785, -0.11015694588422775, 0.7363606095314026, -0.02691664919257164, 0.18204271793365479], [-0.13492584228515625, -0.27176859974861145, 0.47086256742477417, -0.008626449853181839, -0.5875783562660217], [0.7407659888267517, -0.12161418795585632, 0.11223109811544418, -0.286745548248291, 0.0697101578116417], [0.36061984300613403, 0.2606523633003235, -0.5540211200714111, 0.049623552709817886, 0.269822359085083], [-0.2816865146160126, -0.5830381512641907, -0.11582968384027481, 0.793450117111206, 0.05541105568408966], [0.4327317476272583, 0.2176826000213623, -0.40522944927215576, -0.2800622880458832, 0.27640804648399353], [0.11728235334157944, -0.005083311349153519, -0.5629810094833374, 0.0891677662730217, 0.394760400056839], [0.11081117391586304, -0.638212263584137, -0.10100794583559036, 0.11346465349197388, 0.10225196927785873], [0.2769832909107208, -0.28912264108657837, 0.2602135241031647, -0.14865276217460632, 0.23797452449798584], [0.14260345697402954, 0.22208060324192047, -0.5553354024887085, -0.036890700459480286, -0.12794463336467743], [-0.4023384749889374, -0.5728585720062256, -0.39147502183914185, 0.6751891374588013, -0.012471278198063374], [0.4523700773715973, -0.14141426980495453, -0.24820126593112946, -0.3877509832382202, 0.07814856618642807], [0.31763771176338196, -0.29348403215408325, 0.4364820718765259, 0.26884642243385315, -0.6792346239089966], [-0.17548388242721558, -0.5585438013076782, 0.20782460272312164, -0.0829639583826065, 0.7371688485145569], [0.5712577104568481, -0.49102920293807983, 0.0449269600212574, -0.12230031937360764, 0.15667909383773804], [0.538194477558136, 0.4965338706970215, -0.48070552945137024, -0.08898647129535675, -0.18626132607460022], [0.09472563862800598, -0.3102709949016571, -0.5199446082115173, 0.32666370272636414, 0.0823976919054985], [0.49341633915901184, 0.019280636683106422, -0.019991647452116013, -0.17426958680152893, -0.1216696947813034], [0.4651987850666046, -0.5765088796615601, 0.16586393117904663, 0.1404569149017334, 0.06079849600791931], [0.11545751988887787, -0.3225232660770416, -0.01385584007948637, 0.09477050602436066, 0.30031320452690125], [0.06283507496118546, -0.4207973778247833, 0.2981487214565277, 0.1820434331893921, 0.01488493848592043], [0.46963784098625183, 0.375365287065506, -0.4920704960823059, 0.16398851573467255, 0.01792425848543644], [-0.387356698513031, -0.46825745701789856, -0.15375646948814392, 0.3350595235824585, -0.24112468957901], [0.5322055220603943, -0.17995606362819672, 0.0062576900236308575, -0.6899089813232422, 0.18363574147224426], [0.27657029032707214, -0.5269798040390015, -0.35922667384147644, -0.08355250954627991, 0.2268390953540802], [0.07871424406766891, -0.2670464515686035, -0.06157245859503746, 0.2572327256202698, 0.5920228362083435], [0.3062765598297119, -0.5414824485778809, 0.17106540501117706, 0.0801771879196167, 0.5089561939239502], [0.22714641690254211, 0.1798451542854309, -0.3394726514816284, 0.17266157269477844, -0.030804848298430443], [-0.21111564338207245, -0.242361918091774, -0.25105878710746765, 0.5548883080482483, -0.13183237612247467], [0.9943448901176453, -0.28428345918655396, -0.07429616153240204, -0.7308416962623596, -0.0799482986330986], [0.296398788690567, -0.43555793166160583, -0.06869811564683914, -0.17585647106170654, 0.27805477380752563], [-0.3138645887374878, -0.4732181429862976, 0.16731588542461395, 0.16968874633312225, 0.21506698429584503], [-0.20013463497161865, -0.19904004037380219, -0.09878725558519363, 0.08912507444620132, 0.4697088599205017], [0.07903949916362762, 0.051054518669843674, -0.2961307764053345, 0.25765615701675415, 0.10563519597053528], [-0.3622082471847534, -0.524579644203186, 0.07689237594604492, 0.5920866131782532, 0.08943644911050797], [1.0959502458572388, 0.11388365924358368, -0.06190022453665733, -0.7687960267066956, -0.01935146003961563], [0.57737797498703, -0.09686856716871262, 0.36478474736213684, 0.0818825513124466, -0.17913639545440674], [0.11444254964590073, -0.39280790090560913, 0.235080748796463, -0.04108753055334091, 0.3101545572280884], [0.0589008629322052, -0.48318690061569214, -0.039314646273851395, 0.08469007909297943, 0.19043102860450745], [-0.21318137645721436, 0.3011205494403839, -0.30383339524269104, 0.6351064443588257, -0.21101485192775726], [-0.3365322947502136, -0.33720338344573975, 0.17982152104377747, 0.40051504969596863, -0.18629275262355804], [0.8603651523590088, 0.03370211273431778, -0.1908261775970459, -0.4487321376800537, 0.10577164590358734], [0.019031643867492676, -0.2958616614341736, 0.47628673911094666, 0.21709465980529785, -0.25105464458465576], [-0.3285876214504242, -0.17827214300632477, -0.32644379138946533, -0.02893889509141445, 0.37974655628204346], [-0.10645558685064316, -0.18428684771060944, -0.14990651607513428, -0.06466268002986908, 0.3422119915485382], [-0.4349778890609741, 0.5507455468177795, -0.579662561416626, 0.5814752578735352, -0.10901567339897156], [-0.5816338658332825, -0.3036470413208008, -0.08156123012304306, 0.5252768993377686, 0.11948492377996445], [0.8316881656646729, 0.23059198260307312, -0.17260690033435822, -0.5257312655448914, 0.1351376622915268], [0.3768061399459839, -0.5626299381256104, 0.6136072874069214, -0.23281726241111755, -0.37730729579925537], [-0.1640707105398178, -0.1948011815547943, -0.3107636272907257, 0.0066389706917107105, 0.31042206287384033], [-0.3529271185398102, -0.2548462748527527, 0.05146953836083412, -0.4792509377002716, 0.7903774976730347], [-0.3990924656391144, 0.5792935490608215, -0.14668668806552887, 0.30984869599342346, -0.22218430042266846], [-0.6076119542121887, -0.2147037237882614, 0.02153685875236988, 0.8503285646438599, 0.04377811774611473]], [-0.21255064010620117, 0.22076961398124695, 0.9071136713027954, -0.07744729518890381, -1.1246330738067627]]}]}