{"layers": [{"batch_input_shape": [null, 102], "class_name": "Dense", "units": 10, "activation": "relu", "weights": [[[-0.37037280201911926, 0.4530554711818695, 0.1575099229812622, 0.032327886670827866, 0.4200602173805237, 0.42113640904426575, 0.22432568669319153, -0.12308087199926376, -0.2426661252975464, 0.025378098711371422], [-0.13676518201828003, 0.3190193772315979, 0.03591575473546982, 0.03684437274932861, -0.01147723849862814, 0.08880484849214554, 0.0581497997045517, 0.03903748467564583, -0.14302054047584534, 0.16115379333496094], [-0.1117493286728859, 0.042722947895526886, 0.20100931823253632, -0.4715026617050171, -0.06985439360141754, -0.012529184110462666, 0.07210063934326172, -0.2814095914363861, 0.11517538875341415, -0.613504946231842], [0.152887225151062, -0.3279176652431488, -0.0008981124265119433, -0.21837662160396576, -0.03624662384390831, -0.26624780893325806, 0.3591177463531494, 0.23048852384090424, 0.12625475227832794, -0.2897632122039795], [0.4822307825088501, -0.16573506593704224, -0.02435854636132717, -0.16262423992156982, 0.2946549952030182, 0.053858011960983276, 0.19072911143302917, 0.08431798219680786, -0.2111859768629074, -0.5318301320075989], [-0.011273135431110859, 0.03819338604807854, -0.053315285593271255, 0.24772904813289642, -0.12167395651340485, 0.026056509464979172, -0.18438255786895752, -0.3596549928188324, -0.03298281878232956, 0.14888331294059753], [-0.2767384946346283, 0.1872904747724533, -0.06601452082395554, -0.08483663201332092, 0.09488599747419357, 0.2135961800813675, 0.1676628142595291, 0.1583946794271469, -0.06140610948204994, 0.10201629996299744], [-0.07901596277952194, 0.0628942921757698, -0.11539318412542343, 0.09618985652923584, -0.2573874592781067, -0.05116371810436249, -0.2648085653781891, -0.34480637311935425, 0.0220059584826231, -0.06604083627462387], [-0.18704913556575775, -0.1763189285993576, 0.17656965553760529, -0.40561795234680176, -0.11268836259841919, -0.04927177354693413, -0.12963910400867462, -0.3024170398712158, 0.23889097571372986, -0.3325268626213074], [0.2546195685863495, -0.3108418583869934, 0.013843256048858166, 0.13627122342586517, 0.14881743490695953, 0.10517141968011856, 0.15543325245380402, 0.10867264866828918, 0.24337631464004517, 0.05596105381846428], [0.49820980429649353, -0.08711620420217514, 0.32288891077041626, -0.1845950484275818, 0.24765914678573608, -0.07246773689985275, 0.11077675223350525, -0.06894610822200775, 0.018533295020461082, -0.6008683443069458], [0.2768504023551941, 0.1892576962709427, -0.11553975194692612, -0.08448377251625061, -0.38492462038993835, -0.20456726849079132, -0.14438055455684662, 0.03338031843304634, -0.24813556671142578, 0.10088019073009491], [0.011614074930548668, 0.2660152316093445, -0.04725360497832298, -0.22252075374126434, -0.03721925988793373, 0.3338029086589813, -0.07808749377727509, -0.15731105208396912, -0.3118732273578644, 0.12232706695795059], [-0.315500408411026, 0.16492393612861633, -0.1075369268655777, -0.16324098408222198, -0.34922274947166443, 0.014392192475497723, -0.0957740843296051, 0.003704225178807974, 0.04767632856965065, 0.1371227204799652], [-0.10567150264978409, -0.14125151932239532, 0.3569444715976715, -0.37142184376716614, -0.2871505320072174, -0.11059647053480148, -0.1861868053674698, -0.1557619422674179, 0.3367661237716675, -0.3117457926273346], [-0.04256376251578331, -0.10814963281154633, -0.1825355440378189, -0.1954576075077057, 0.08838856220245361, 5.621197487926111e-06, 0.14829756319522858, 0.38062337040901184, 0.12996159493923187, 0.016796894371509552], [0.21834923326969147, -0.14830824732780457, 0.20608514547348022, -0.22457711398601532, -0.22263334691524506, 0.17432378232479095, -0.06026904657483101, 0.08183985948562622, 0.12275251746177673, -0.12828391790390015], [0.06168209761381149, 0.2216038703918457, 0.21115517616271973, -0.08055995404720306, -0.4553894102573395, -0.168511301279068, 0.01323503814637661, -0.013719907961785793, -0.1782345324754715, 0.3895476162433624], [-0.19180603325366974, 0.24951758980751038, -0.06433988362550735, 0.13835351169109344, 0.24067196249961853, 0.12995164096355438, 0.2174777090549469, -0.11318840831518173, -0.2924354374408722, -0.048701297491788864], [-0.09466088563203812, 0.3026255965232849, 0.09510447829961777, 0.0666305273771286, -0.2456279993057251, 0.11653684079647064, -0.3003101348876953, 0.024589933454990387, -0.29303687810897827, 0.018150782212615013], [0.22996684908866882, 0.07631050795316696, 0.19709628820419312, -0.3061344623565674, 0.07639271765947342, -0.04339365288615227, -0.22572556138038635, 0.00963767059147358, 0.11969556659460068, -0.5193827152252197], [-0.05774032324552536, -0.34809577465057373, -0.3181607127189636, 0.28171685338020325, -0.14025287330150604, -0.03097364492714405, 0.13616865873336792, 0.2136782705783844, 0.27838999032974243, 0.368716835975647], [0.2715626358985901, 0.17488883435726166, 0.3778970241546631, -0.1861795336008072, -0.08666002005338669, 0.1342928260564804, -0.004251386504620314, 0.006063091568648815, -0.23854288458824158, -0.506916880607605], [0.0880255252122879, 0.2248051017522812, 0.12653884291648865, 0.21726885437965393, -0.0661238506436348, 0.050941966474056244, -0.10205118358135223, -0.05430978164076805, -0.2862449586391449, 0.17207010090351105], [-0.0487009696662426, 0.051676634699106216, 0.0515972264111042, 0.1610822081565857, -0.15695075690746307, -0.03352990001440048, 0.2453247755765915, -0.17173072695732117, -0.043380770832300186, 0.25527986884117126], [0.03990430384874344, 0.2602863609790802, 0.02996779978275299, -0.2253030687570572, 0.04275551438331604, 0.23400169610977173, -0.09418953210115433, 0.08084972947835922, 0.043249644339084625, -0.12283774465322495], [-0.08169740438461304, 0.1544054001569748, 0.42356935143470764, -0.08616150170564651, 0.2594478726387024, -0.1431395411491394, 0.23004424571990967, 0.05361492931842804, 0.09686008095741272, -0.6040488481521606], [-0.06155410036444664, -0.09622079879045486, -0.1028888002038002, 0.13939298689365387, 0.07178521156311035, -0.09581509977579117, -0.1798786222934723, -0.04690724238753319, 0.05400684475898743, 0.24995891749858856], [0.29386258125305176, -0.01855660416185856, -0.10313346982002258, -0.06316494941711426, 0.15476173162460327, -0.13935166597366333, -0.023879673331975937, -0.09859918802976608, -0.13687510788440704, -0.28337326645851135], [0.26683202385902405, -0.0067521026358008385, -0.1015610322356224, 0.23842032253742218, -0.3033832013607025, -0.2752454876899719, -0.26291409134864807, -0.01719370298087597, -0.04183850809931755, 0.1958567202091217], [-0.04091184586286545, -0.1379830688238144, 0.1010158583521843, -0.22390908002853394, -0.1019195020198822, 0.008444958366453648, 0.2084970921278, -0.051669128239154816, -0.23582082986831665, 0.20630718767642975], [0.18849316239356995, 0.17481549084186554, -0.01685905084013939, 0.011277041397988796, -0.04055246710777283, 0.1710679829120636, -0.2153037041425705, -0.15951892733573914, -0.08198631554841995, -0.2040482759475708], [0.1415862888097763, 0.1779198944568634, 0.2536550462245941, -0.3904125690460205, 0.07143819332122803, 0.31982165575027466, -0.13903291523456573, 0.07123839855194092, -0.03245498985052109, -0.46803930401802063], [-0.07897928357124329, -0.246171772480011, -0.11849097162485123, -0.0036052586510777473, 0.003933366853743792, -0.10916848480701447, -0.09568040817975998, -0.0868145152926445, -0.008323783054947853, 0.0221195537596941], [0.1800238937139511, -0.27804505825042725, 0.24832428991794586, 0.029250700026750565, -0.20507432520389557, -0.0880226269364357, 0.021939624100923538, 0.19847090542316437, 0.04733865708112717, -0.23699097335338593], [-0.01934860274195671, 0.10628063231706619, -0.1916118860244751, -0.05669824779033661, -0.06701119244098663, -0.08179572969675064, 0.006591894198209047, -0.27599427103996277, 0.22905679047107697, -0.023791493847966194], [-0.19632665812969208, -0.05482558161020279, 0.04216064512729645, -0.18603307008743286, 0.18507689237594604, -0.12541769444942474, 0.23232057690620422, 0.12833918631076813, -0.21363012492656708, 0.12064431607723236], [-0.09182814508676529, -0.05297490209341049, -0.2569918930530548, 0.0553804412484169, -0.06821399182081223, 0.13785400986671448, 0.0960102304816246, 0.049088940024375916, -0.37172648310661316, -0.07108515501022339], [0.025185540318489075, 0.024452412500977516, 0.1127856895327568, -0.45619118213653564, 0.18859237432479858, -0.047645192593336105, 0.05363747850060463, -0.13893873989582062, -0.009156471118330956, -0.5850874185562134], [0.045554403215646744, -0.1887204796075821, -0.10311277210712433, 0.175062358379364, 0.07057221978902817, -0.11718179285526276, -0.09202837198972702, 0.06025530770421028, 0.3466470539569855, 0.35043635964393616], [0.17123498022556305, 0.003293062560260296, -0.15964917838573456, -0.14659494161605835, -0.031783320009708405, 0.12167482078075409, 0.1350143551826477, 0.04343339055776596, -0.12125074118375778, -0.2966462969779968], [0.19781960546970367, 0.036208465695381165, -0.004878210369497538, -0.08893255889415741, 0.006574457045644522, -0.02334154210984707, -0.21450939774513245, -0.10788138955831528, 0.03541801869869232, 0.1610773205757141], [0.1902475208044052, 0.1405240297317505, -0.1623559147119522, 0.014586723409593105, 0.2112727016210556, 0.2799592614173889, 0.21563123166561127, 0.11588838696479797, -0.25467750430107117, -0.0649757981300354], [0.12505869567394257, 0.08820368349552155, 0.07789617776870728, -0.2912152409553528, 0.06565610319375992, 0.06503181904554367, -0.00793291162699461, -0.10232611745595932, -0.0331774577498436, -0.10049837082624435], [0.07644346356391907, 0.18243664503097534, 0.4459042251110077, -0.3758508265018463, 0.03106909617781639, -0.07217760384082794, 0.2149229645729065, 0.07530254125595093, 0.06680652499198914, -0.5034838914871216], [-0.0032867565751075745, 0.04034288600087166, 0.05609538406133652, -0.09154713898897171, 0.14213146269321442, -0.12177302688360214, -0.06264933943748474, -0.2941453456878662, 0.23041149973869324, 0.11220402270555496], [0.38557136058807373, 0.02845626510679722, 0.10730452835559845, -0.0919402465224266, -0.1072462871670723, -0.044071026146411896, -0.008844652213156223, 0.2881218492984772, -0.21424070000648499, -0.4892284870147705], [0.2786925733089447, -0.11636229604482651, -0.18830560147762299, 0.3209154009819031, -0.10920818150043488, -0.0743572860956192, -0.14061430096626282, -0.1558077335357666, 0.16258680820465088, 0.11056066304445267], [0.01631002686917782, -0.027000855654478073, 0.05368126556277275, -0.1548810601234436, 0.0739942193031311, 0.1867915689945221, 0.20465227961540222, 0.033402372151613235, -0.3276189863681793, -0.10172996670007706], [0.027208557352423668, 0.3972550928592682, -0.1709761768579483, -0.12781909108161926, 0.18926383554935455, -0.15504343807697296, 0.01783299818634987, 0.22721372544765472, 0.08645352721214294, -0.20686718821525574], [-0.13734377920627594, 0.2588415741920471, 0.5210374593734741, -0.3066527843475342, 0.23433366417884827, -0.13828147947788239, 0.022975079715251923, -0.18177387118339539, 0.0516207292675972, -0.6376376748085022], [0.0210247952491045, 0.0467267781496048, 0.021367529407143593, -0.010762983001768589, 0.22375616431236267, 0.24667474627494812, -0.02717314474284649, -0.010760270990431309, -0.1027010828256607, 0.1673506498336792], [0.07019422948360443, 0.018667375668883324, -0.29139021039009094, 0.017252949997782707, -0.1324499249458313, -0.2238144427537918, 0.04828297719359398, 0.03646387904882431, -0.22362251579761505, -0.5352124571800232], [0.06312797963619232, 0.264166921377182, 0.058607880026102066, -0.04776144400238991, -0.2711511552333832, -0.21323126554489136, 0.004066259600222111, 0.04627188295125961, 0.3299146592617035, -0.1429825872182846], [0.2846609354019165, 0.17012722790241241, -0.26388198137283325, -0.05623406916856766, 0.21846744418144226, 0.36732572317123413, 0.09994793683290482, -0.044130463153123856, 0.06133997067809105, -0.3817555606365204], [-0.255180686712265, 0.11256047338247299, -0.1494971066713333, 0.03881245106458664, 0.008571279235184193, 0.07858340442180634, 0.012060676701366901, 0.21274732053279877, 0.02898436412215233, -0.23873071372509003], [-0.07945608347654343, 0.14478038251399994, 0.348960816860199, -0.09401995688676834, -0.08811736106872559, 0.14400242269039154, 0.09034814685583115, -0.005986908450722694, 0.15598344802856445, -0.30628353357315063], [-0.003674493171274662, -0.21350012719631195, 0.07961414754390717, -0.029369773343205452, -0.13113555312156677, -0.1952807903289795, 0.17069438099861145, -0.039659708738327026, -0.06768026947975159, -0.1650802344083786], [0.3537055253982544, -0.3995104134082794, -0.1953219622373581, -0.24575841426849365, -0.05655486136674881, -0.16666868329048157, 0.0716622993350029, 0.10950926691293716, -0.025083256885409355, -0.6161593198776245], [0.15887485444545746, -0.10056094080209732, 0.014689711853861809, -0.026346664875745773, -0.04594443365931511, -0.044696543365716934, -0.004812185652554035, -0.20567169785499573, 0.07222000509500504, -0.02819356508553028], [0.24761739373207092, 0.24168674647808075, -0.3304116129875183, 0.008154063485562801, 0.2536439299583435, 0.23394569754600525, 0.32120585441589355, -0.024575842544436455, 0.13003501296043396, -0.10711923986673355], [-0.13020867109298706, 0.03265868499875069, -0.20286811888217926, -0.1633397489786148, 0.3588331639766693, 0.3144542872905731, 0.15000441670417786, 0.13549332320690155, -0.022696197032928467, -0.14904969930648804], [-0.34269896149635315, 0.05076109617948532, 0.16864271461963654, -0.22009126842021942, 0.11469243466854095, -0.09574637562036514, 0.1727842092514038, 0.2802581191062927, 0.1824152022600174, -0.26594439148902893], [0.4242550730705261, 0.024522729218006134, -0.03728031367063522, 0.057812415063381195, -0.06325451284646988, -0.04458600655198097, 0.10174372792243958, -0.02465841732919216, -0.00686561968177557, -0.01942954584956169], [0.06444134563207626, -0.026902424171566963, -0.10058434307575226, -0.057563818991184235, -0.055880267173051834, -0.05098658427596092, -0.24733425676822662, -0.019675929099321365, -0.024416768923401833, -0.36046719551086426], [0.2120230346918106, -0.05237877368927002, -0.27486127614974976, 0.1717822551727295, 0.07449769973754883, -0.018497316166758537, 0.08231271058320999, -0.20748648047447205, 0.22565293312072754, -0.11400317400693893], [0.12025723606348038, 0.20740893483161926, -0.15636472404003143, 0.1771407425403595, 0.15456441044807434, 0.3308664858341217, -0.04005170240998268, -0.06487691402435303, 0.017832480370998383, -0.40227949619293213], [0.1854744851589203, -0.07900107651948929, -0.2460838258266449, -0.169732928276062, 0.2910751402378082, 0.03331715986132622, -0.011394195258617401, 0.28599852323532104, 0.05599420517683029, -0.1528131365776062], [-0.4402408003807068, 0.06676309555768967, 0.2009926438331604, -0.24709481000900269, 0.13269667327404022, -0.20721200108528137, 0.09529994428157806, 0.0817200317978859, 0.3207811415195465, -0.2725064158439636], [0.3028091788291931, -0.18715383112430573, 0.007618616335093975, -0.061155084520578384, -0.11291977018117905, -0.01859450899064541, -0.1128336489200592, -0.0012597432360053062, -0.14430120587348938, -0.02333684265613556], [0.36889782547950745, 0.03671563044190407, -0.013739016838371754, -0.09400998800992966, 0.21618866920471191, 0.1612587720155716, -0.2010977566242218, 0.13403193652629852, 0.09607092291116714, -0.505823016166687], [-0.11794652044773102, 0.27162519097328186, -0.046067140996456146, -0.07886689901351929, -0.04274796321988106, 0.17024996876716614, 0.025939106941223145, -0.14863498508930206, 0.01729758270084858, -0.17306162416934967], [0.3149570822715759, 0.05625361204147339, -0.22832700610160828, 0.14868590235710144, 0.0945005714893341, -0.035180121660232544, -0.02260647714138031, 0.054305676370859146, 0.16178956627845764, -0.32210639119148254], [0.10640411078929901, 0.13910582661628723, -0.03264208510518074, -0.10407395660877228, 0.05437438562512398, 0.23057690262794495, -0.014446639455854893, 0.28327202796936035, 0.12206532061100006, -0.3275756537914276], [-0.3016674518585205, 0.008949684910476208, 0.5150706171989441, -0.4385737478733063, 0.30844518542289734, 0.1550881415605545, 0.2415025681257248, 0.025006046518683434, 0.30731531977653503, -0.0684337392449379], [0.0052457572892308235, 0.10563075542449951, -0.40048748254776, 0.21619872748851776, -0.03223346546292305, -0.27082306146621704, -0.22946323454380035, -0.12868192791938782, 0.1721678078174591, -0.08859121054410934], [0.19240768253803253, -0.051106419414281845, -0.16710709035396576, -0.031662750989198685, -0.03382064029574394, -0.1713128685951233, -0.14330565929412842, 0.2493683248758316, 0.04848131537437439, -0.1433688998222351], [-0.3020749092102051, 0.13610988855361938, -0.23061276972293854, 0.1306045651435852, 0.08640440553426743, -0.07382193207740784, 0.03985392302274704, -0.04248857870697975, 0.3529762029647827, -0.2089601457118988], [0.16533993184566498, -0.19981126487255096, -0.3921264410018921, 0.02168227545917034, 0.30188611149787903, 0.08369817584753036, 0.16277064383029938, 0.2180977612733841, 0.03689570352435112, -0.21774175763130188], [0.18978270888328552, -0.047334589064121246, -0.174747496843338, -0.00022323071607388556, 0.1613318920135498, 0.1588289737701416, 0.07228133082389832, 0.29238012433052063, 0.13002793490886688, 0.048045478761196136], [0.01843843050301075, -0.1308048814535141, 0.343941330909729, -0.1538018137216568, -0.04005088284611702, 0.008200493641197681, 0.003050944535061717, -0.14414799213409424, 0.24898245930671692, 0.13689839839935303], [-0.026231568306684494, -0.19285698235034943, -0.17866578698158264, 0.16146188974380493, -0.11212196946144104, -0.27209708094596863, -0.005961979273706675, 0.16479437053203583, 0.16375605762004852, 0.16439951956272125], [0.3977569341659546, -0.11274433135986328, -0.16529247164726257, 0.18219320476055145, 0.374916136264801, 0.11565584689378738, 0.10530544072389603, 0.16860581934452057, -0.03716093301773071, -0.3607967793941498], [0.03243135288357735, 0.08808775991201401, -0.25966885685920715, -0.2030622959136963, -0.2837217450141907, 0.2261969894170761, 0.15674857795238495, 0.026923123747110367, 0.1727643460035324, -0.14006546139717102], [0.07159458845853806, -0.08950638771057129, -0.4129067361354828, -0.1948399394750595, 0.028772862628102303, 0.18289558589458466, 0.1463606208562851, 0.22349748015403748, -0.05737445503473282, -0.37870827317237854], [0.03180945664644241, 0.05570761114358902, -0.045128196477890015, -0.15313835442066193, 0.3717666566371918, 0.07859320193529129, 0.1890961229801178, 0.1405511051416397, 0.006115488242357969, -0.023315750062465668], [-0.2641522288322449, -0.1474771946668625, 0.33690017461776733, -0.1727977991104126, -0.13056360185146332, -0.022119931876659393, -0.011620787903666496, -0.02638535387814045, 0.2512243688106537, -0.11802900582551956], [-0.03975558653473854, 0.09320683777332306, 0.0012153757270425558, 0.18577319383621216, -0.15235739946365356, 0.03742854669690132, 0.06679048389196396, 0.10694624483585358, 0.005659201648086309, -0.003922267351299524], [0.18643389642238617, -0.05784279853105545, -0.14444932341575623, -0.11447566747665405, 0.3889096677303314, -0.17744600772857666, 0.015352196991443634, 0.17361922562122345, -0.1250237375497818, -0.22569753229618073], [0.0769210234284401, 0.05744263157248497, -0.023531148210167885, -0.26986053586006165, -0.2057001292705536, 0.44683751463890076, -0.02396594174206257, -0.092851921916008, 0.0317051075398922, 0.017803926020860672], [-0.11950463801622391, -0.12599200010299683, -0.2998303472995758, 0.032339535653591156, 0.2725754976272583, -0.04736635088920593, 0.332485556602478, -0.019245710223913193, 0.16276365518569946, 0.07982128113508224], [0.34747132658958435, -0.29004430770874023, -0.2893611192703247, 0.19931791722774506, 0.44441258907318115, 0.028156092390418053, 0.02975432574748993, 0.01574861630797386, 0.12240169197320938, 0.015413252636790276], [-0.35644179582595825, -0.05030393227934837, 0.497724324464798, -0.17624247074127197, -0.12771208584308624, 0.13959906995296478, 0.19488295912742615, 0.0002815674524754286, 0.1345193237066269, -0.5276599526405334], [0.18225352466106415, 0.08555489033460617, -0.1188909187912941, 0.2805144190788269, 0.0618339441716671, -0.1400109976530075, -0.1879953145980835, 0.004568722564727068, 0.033362653106451035, 0.23049859702587128], [0.02210419252514839, -0.19989638030529022, -0.2343071699142456, -0.04751729965209961, 0.28059715032577515, -0.09490779787302017, 0.21615909039974213, 0.1441745162010193, -0.09297806769609451, 0.050518572330474854], [0.045312173664569855, 0.40919482707977295, 0.03243075683712959, -0.2611176073551178, -0.26340094208717346, 0.40829938650131226, 0.053058937191963196, 0.13382884860038757, 0.04376404359936714, -0.4237061142921448], [-0.19836881756782532, -0.1407025009393692, -0.03597824275493622, 0.15648475289344788, 0.21695509552955627, 0.2561515271663666, 0.3505288064479828, 0.12770827114582062, 0.05903659015893936, -0.06350810080766678], [0.027141137048602104, 0.017170460894703865, -0.34596413373947144, -0.07409249991178513, 0.19604025781154633, 0.006427568383514881, 0.36153140664100647, 0.10857262462377548, 0.3704968988895416, -0.17560173571109772], [-0.3113727569580078, 0.22724878787994385, 0.4389966130256653, -0.314752459526062, 0.17587827146053314, -0.1226605623960495, -0.024990221485495567, 0.04110986739397049, 0.30095547437667847, -0.19223441183567047], [-0.0003552355628926307, -0.2593378722667694, 0.14000415802001953, 0.359361469745636, -0.1604573130607605, -0.37617871165275574, 0.09049715101718903, -0.12232950329780579, 0.16009728610515594, 0.6578570604324341], [0.2772879898548126, -0.45319271087646484, -0.2688947319984436, 0.05045788735151291, 0.19931823015213013, 0.06590069085359573, 0.21095381677150726, 0.0872984305024147, -0.0579942986369133, -0.23284795880317688], [-0.3357595205307007, 0.33865275979042053, -0.3078776001930237, -0.021887075155973434, -0.12012509256601334, 0.4393572509288788, 0.16163980960845947, -0.1937791407108307, 0.16018430888652802, -0.39981943368911743]], [0.16707171499729156, 0.08059215545654297, 0.16701820492744446, -0.08384694904088974, 0.0018110835226252675, 0.2372458577156067, -0.008972661569714546, 0.016736650839447975, 0.19147196412086487, -0.1245918795466423]]}, {"class_name": "Dense", "units": 1, "activation": "sigmoid", "weights": [[[-0.8859135508537292], [0.3527642786502838], [-0.8778082132339478], [-1.0526466369628906], [0.4114035665988922], [0.8620424270629883], [0.8407818078994751], [0.5444651246070862], [-0.693294107913971], [-0.42668426036834717]], [0.039532650262117386]]}]}