{"layers": [{"batch_input_shape": [null, 400], "class_name": "InputLayer"}, {"class_name": "Reshape", "target_shape": [400, 1]}, {"class_name": "Conv1D", "strides": 1, "kernel_size": 3, "padding": "valid", "activation": "relu", "weights": [[[-0.45954087376594543, -0.1411638706922531, -0.5400261878967285, 0.07692208141088486], [-0.27263060212135315, -0.30756986141204834, 0.713015079498291, 0.6364182829856873], [-0.5218352675437927, 0.09330561012029648, -0.46501588821411133, 0.4147188663482666]], [0.06934484094381332, -0.026926333084702492, 0.025929786264896393, 0.16886891424655914]]}, {"class_name": "MaxPooling1D", "pool_size": 2, "strides": 2}, {"class_name": "Conv1D", "strides": 1, "kernel_size": 3, "padding": "valid", "activation": "relu", "weights": [[[-0.4521237015724182, 0.21019107103347778, 0.4147363603115082, -0.3360266387462616], [-0.08335951715707779, 0.17997892200946808, -0.19989563524723053, 0.00806411262601614], [0.18030542135238647, -0.06529935449361801, 0.07779164612293243, 0.2122022807598114], [0.6236342787742615, 0.055619098246097565, -0.037871360778808594, -0.07510985434055328], [0.24077408015727997, 0.3441447615623474, 0.33162355422973633, 0.09921133518218994], [0.42657941579818726, -0.11259736865758896, -0.2506923973560333, -0.2613101601600647], [-0.19717131555080414, -0.09730555862188339, -0.1116936132311821, 0.6036733984947205], [0.1217963695526123, 0.28053930401802063, 0.3523446321487427, 0.15791712701320648], [-0.2019353061914444, -0.4854278862476349, -0.4189724922180176, 0.003854351583868265], [0.3069542944431305, -0.23731665313243866, 0.04970206320285797, 0.04797956347465515], [0.228611022233963, -0.07358194887638092, -0.36866554617881775, -0.015461524948477745], [-0.435869961977005, -0.10068900138139725, 0.4441964030265808, 0.06104243919253349]], [0.12615811824798584, 0.00810797605663538, 0.012904160656034946, 0.07000936567783356]]}, {"class_name": "MaxPooling1D", "pool_size": 2, "strides": 2}, {"class_name": "Conv1D", "strides": 1, "kernel_size": 3, "padding": "valid", "activation": "relu", "weights": [[[0.13039050996303558, -0.06317288428544998, 0.44247522950172424, 0.00313518731854856, 0.16104979813098907, 0.12297363579273224, 0.3941221535205841, 0.011919695883989334], [0.2299862504005432, 0.7060877084732056, -0.035511359572410583, 0.12340826541185379, 0.32387715578079224, 0.40118277072906494, -0.19163966178894043, -0.23144963383674622], [0.4477137327194214, 0.43813082575798035, 0.12947216629981995, 0.6499589085578918, 0.2726307213306427, 0.33754563331604004, 0.15806438028812408, -0.16511701047420502], [-0.1498766541481018, 0.1472468227148056, 0.737450122833252, 0.30379611253738403, -0.2871466279029846, -0.04772079363465309, -0.22935396432876587, 0.5550973415374756], [-0.1501200795173645, 0.3797181248664856, -0.0716908723115921, 0.2713472843170166, 0.27082616090774536, -0.20828324556350708, 0.2638663649559021, 0.2865467667579651], [0.07121957838535309, 0.7098532915115356, 0.1338500827550888, 0.2224009782075882, 0.4787759780883789, 0.411450058221817, -0.06884025037288666, -0.36406609416007996], [0.153506800532341, 0.2106040120124817, -0.2751469314098358, -0.04975760728120804, 0.6185933351516724, 0.45127901434898376, 0.501315176486969, -0.2988281548023224], [-0.2584126591682434, -0.4771419167518616, 0.18183763325214386, 0.16074515879154205, 0.19440975785255432, -0.02519785426557064, 0.23405538499355316, 0.09084369242191315], [0.4872245192527771, 0.1813817173242569, -0.04075704514980316, 0.2668200731277466, -0.23438046872615814, 0.398322731256485, -0.25880324840545654, -0.2643280029296875], [0.46386978030204773, 0.5258698463439941, -0.404262512922287, -0.053900059312582016, 0.341816782951355, 0.12767158448696136, -0.020144421607255936, -0.24061506986618042], [-0.04802405834197998, 0.1355961114168167, -0.4964318573474884, -0.08466635644435883, 0.2283105105161667, -0.18558917939662933, 0.13547383248806, -0.366743266582489], [-0.05799119919538498, -0.10272928327322006, 0.04439038410782814, 0.4574298560619354, -0.24792154133319855, -0.3548092842102051, 0.5288150906562805, 0.2996516823768616]], [0.003284724662080407, -0.00048098157276399434, 0.04774383828043938, 0.008658438920974731, 0.033940691500902176, 0.010545141063630581, -0.01910732500255108, 0.05840298905968666]]}, {"class_name": "MaxPooling1D", "pool_size": 2, "strides": 2}, {"class_name": "Flatten"}, {"class_name": "Dense", "units": 3, "activation": "softmax", "weights": [[[-0.17554181814193726, -0.082303486764431, 0.23811198770999908], [-0.3145410120487213, 0.025991180911660194, 0.08667382597923279], [-0.05036025494337082, -0.12387005239725113, 0.23179367184638977], [-0.1844911128282547, -0.3335019648075104, 0.22731487452983856], [-0.1849960833787918, -0.04866623133420944, 0.18323300778865814], [-0.22622330486774445, -0.12617796659469604, 0.08365462720394135], [-0.10022412240505219, -0.08206602931022644, 0.17320401966571808], [-0.01328243874013424, 0.0529579259455204, -0.03269994258880615], [-0.09503963589668274, -0.05669635161757469, 0.020997924730181694], [0.07712862640619278, -0.2597830295562744, 0.22351039946079254], [0.00400512432679534, -0.2038370966911316, 0.26882070302963257], [-0.07136206328868866, -0.12227997928857803, 0.16091090440750122], [-0.11276427656412125, -0.25706395506858826, 0.00538241770118475], [-0.15017063915729523, -0.0006055214907974005, 0.07353120297193527], [-0.1782764345407486, -0.036069825291633606, 0.18754775822162628], [0.20916152000427246, -0.17384925484657288, 0.022839641198515892], [-0.03292541578412056, -0.18358786404132843, 0.11146873980760574], [-0.16965027153491974, -0.0034433852415531874, 0.07025079429149628], [-0.3732972741127014, -0.0857372134923935, 0.15277381241321564], [0.03689584508538246, -0.10815480351448059, 0.2370995134115219], [0.055734287947416306, -0.09051132202148438, 0.19748254120349884], [-0.1481030285358429, 0.1603265404701233, 0.03692487254738808], [0.009169388562440872, -0.2135920375585556, 0.2227238267660141], [0.017296098172664642, 0.08687321841716766, 0.09174340218305588], [-0.11227501928806305, 0.0006844227900728583, 0.061595939099788666], [0.032572321593761444, -0.1208573505282402, 0.23655231297016144], [0.28380295634269714, -0.323262482881546, 0.1246890127658844], [0.0535997673869133, -0.08893832564353943, 0.0765502005815506], [-0.12779393792152405, -0.10394047200679779, 0.08767406642436981], [-0.2558489739894867, -0.0799095407128334, 0.23164179921150208], [-0.013839672319591045, -0.20522335171699524, 0.16978932917118073], [0.21017472445964813, -0.21570971608161926, 0.10340780019760132], [0.05343949422240257, -0.03761868178844452, 0.11546403914690018], [-0.21485044062137604, 0.06218311935663223, -0.017575949430465698], [-0.034668393433094025, -0.17794270813465118, 0.16776151955127716], [0.18711110949516296, -0.2550019323825836, 0.0284970011562109], [-0.04600367322564125, 0.019655046984553337, 0.07730510830879211], [-0.07676760852336884, -0.010133391246199608, 0.14024044573307037], [0.09287642687559128, -0.26748576760292053, 0.22449864447116852], [0.22576138377189636, -0.10302776098251343, 0.05936456099152565], [-0.07257895916700363, 0.14560389518737793, 0.07573525607585907], [-0.10989709198474884, 0.02742300182580948, 0.24199682474136353], [0.32642123103141785, -0.30637580156326294, 0.10356356203556061], [0.022661292925477028, -0.27906954288482666, 0.19791369140148163], [-0.41011807322502136, 0.05397893115878105, 0.0027047547046095133], [-0.05731014162302017, -0.12972158193588257, 0.16729244589805603], [0.01728043705224991, -0.05546433851122856, 0.07112964987754822], [0.26856622099876404, -0.22024428844451904, 0.025722142308950424], [-0.32804247736930847, 0.10213577002286911, -0.008173459209501743], [-0.12906301021575928, -0.11924519389867783, 0.1298947036266327], [0.03620413690805435, -0.15205669403076172, -0.09533960372209549], [0.0436168797314167, -0.1007176861166954, -0.004820996429771185], [-0.06723330169916153, -0.22548209130764008, 0.20979414880275726], [-0.04170522466301918, -0.07264726608991623, 0.07785318046808243], [0.01309176255017519, -0.13776302337646484, -0.05446876958012581], [0.2698831558227539, -0.2152601182460785, -0.22078289091587067], [-0.06759011745452881, 0.04692963510751724, 0.06512995064258575], [-0.06439624726772308, 0.0373813658952713, 0.061854198575019836], [0.16466882824897766, 0.006093089934438467, -0.2616254687309265], [0.1375238299369812, -0.13570155203342438, 0.13249734044075012], [-0.020365571603178978, 0.08094760030508041, 0.0827907919883728], [-0.1402340680360794, 0.12635250389575958, 0.09078628569841385], [-0.03511384129524231, -0.20397253334522247, -0.10124411433935165], [0.10878709703683853, -0.06488785892724991, -0.15302883088588715], [-0.13911598920822144, 0.007946962490677834, 0.22311772406101227], [-0.15526896715164185, 0.06201270967721939, -0.056242916733026505], [0.25470396876335144, -0.17150548100471497, -0.029996205121278763], [0.06124439090490341, 0.04006069526076317, 0.04685903713107109], [-0.09709201008081436, -0.022625913843512535, 0.12747015058994293], [-0.20911580324172974, -0.0012816737871617079, 0.039600059390068054], [-0.12603840231895447, -0.0696539580821991, -0.019259832799434662], [0.25708332657814026, -0.11536604911088943, -0.13818064332008362], [-0.12247925251722336, 0.027948597446084023, 0.20778998732566833], [-0.15248705446720123, 0.07765132188796997, 0.1471269428730011], [-0.07014592736959457, 0.07472042739391327, -0.0639737993478775], [0.023929454386234283, -0.2544120252132416, 0.144459530711174], [-0.23906061053276062, -0.04522315412759781, 0.24752923846244812], [-0.03141610324382782, -0.07990386337041855, 0.07592318207025528], [0.04480521380901337, -0.042715076357126236, 0.0994599312543869], [-0.07633811235427856, 0.047354888170957565, 0.010725562460720539], [-0.27088531851768494, 0.013719500042498112, 0.17700262367725372], [-0.03739902749657631, 0.08225244283676147, 0.008934959769248962], [0.2914799749851227, -0.09378837794065475, -0.1788296103477478], [0.10604743659496307, -0.002152964472770691, -0.10501167178153992], [0.06832946091890335, -0.024017902091145515, 0.15119116008281708], [-0.24693544209003448, -0.015529072843492031, 0.031400322914123535], [-0.04663093388080597, -0.005245066247880459, 0.12102097272872925], [0.2558498978614807, -0.0005809514550492167, -0.2522745430469513], [-0.05704944208264351, -0.1446342021226883, 0.06619951874017715], [-0.004215741530060768, -0.18089239299297333, 0.20102258026599884], [0.0997219979763031, 0.04974260553717613, -0.046068549156188965], [0.030188124626874924, -0.01739499717950821, -0.08831354230642319], [0.09056410193443298, -0.13324637711048126, 0.02352713793516159], [-0.2342040091753006, 0.025369662791490555, -0.03342688828706741], [0.1169702336192131, -0.10233556479215622, -0.03827326372265816], [-0.05246990919113159, 0.17622250318527222, -0.18785730004310608], [-0.09163952618837357, -0.16575093567371368, 0.2096986323595047], [-0.014777294360101223, -0.05025704950094223, 0.12339673936367035], [0.14441999793052673, -0.19869408011436462, -0.12106084823608398], [0.08349203318357468, -0.12224596738815308, -0.012940134853124619], [-0.17023882269859314, -0.03577214106917381, 0.1431226283311844], [-0.21270884573459625, -0.006392509676516056, 0.14522860944271088], [0.000829419819638133, 0.07281293720006943, 0.1493392139673233], [0.11550672352313995, 0.22538349032402039, -0.20673851668834686], [-0.33508485555648804, 0.2341371774673462, -0.013398091308772564], [-0.1865684986114502, -0.02583671361207962, 0.0022337634582072496], [0.01006708201020956, 0.12552322447299957, -0.035134460777044296], [-0.06950674951076508, -0.07407249510288239, -0.0696333572268486], [-0.14257441461086273, -0.056321315467357635, -0.018849026411771774], [-0.26357123255729675, 0.2636861503124237, 0.06385678797960281], [0.05408080294728279, -0.19795732200145721, -0.030310824513435364], [-0.004522697068750858, -0.020532051101326942, -0.1772109419107437], [-0.2108926922082901, 0.1336291879415512, 0.25490298867225647], [-0.14271597564220428, -0.21287761628627777, 0.06120266392827034], [0.1684698760509491, 0.0838504359126091, -0.16108562052249908], [0.001337862340733409, -0.013872245326638222, 0.11597129702568054], [-0.16211725771427155, -0.028551487252116203, 0.15559987723827362], [-0.1952410191297531, -0.02609412744641304, 0.10790359228849411], [-0.18039393424987793, -0.020446674898266792, 0.09475704282522202], [0.13660402595996857, 0.12251982092857361, -0.16626569628715515], [-0.3405638337135315, 0.06845017522573471, -0.005293725989758968], [-0.14937806129455566, 0.16645091772079468, -0.035271886736154556], [-0.12203171849250793, 0.12795177102088928, -0.08744530379772186], [-0.006150996778160334, 0.1507321149110794, -0.09549491107463837], [0.07964923232793808, -0.05876411497592926, 0.024877475574612617], [-0.14624910056591034, 0.14015047252178192, -0.02597273699939251], [-0.009362544864416122, -0.09581822901964188, -0.01297325175255537], [-0.03578940033912659, 0.20778337121009827, -0.21353985369205475], [-0.020934080705046654, 0.13287067413330078, 0.08316351473331451], [0.009360715746879578, -0.02243679016828537, 0.0528460368514061], [0.12966962158679962, -0.015976153314113617, -0.16732439398765564], [-0.014910365454852581, 0.030207954347133636, 0.04269731417298317], [-0.32008612155914307, 0.05285245552659035, 0.13927198946475983], [-0.2849549651145935, 0.12386651337146759, 0.05195295810699463], [-0.05158534646034241, 0.0015128219965845346, -0.07311806082725525], [0.09326043725013733, 0.04273748770356178, -0.113377645611763], [-0.2218833714723587, 0.19017793238162994, 0.08654406666755676], [-0.1126960888504982, -0.10122253000736237, 0.1481466442346573], [0.24652986228466034, 0.09221559762954712, -0.11750144511461258], [0.04189170151948929, 0.1410701721906662, -0.21351349353790283], [-0.031787555664777756, -0.10205961018800735, 0.1386794149875641], [-0.20124326646327972, -0.1648320108652115, 0.1491203010082245], [-0.07481485605239868, 0.08881920576095581, -0.17109499871730804], [0.12037383019924164, -0.025405488908290863, -0.2619010806083679], [-0.15321485698223114, 0.27064862847328186, 0.16050773859024048], [-0.19316816329956055, 0.11909527331590652, 0.12437332421541214], [-0.06463183462619781, 0.1437196582555771, -0.08251627534627914], [-0.0902244821190834, -0.06905462592840195, 0.05628569796681404], [-0.024505535140633583, 0.12807194888591766, 0.08733449876308441], [-0.3446020781993866, 0.2016727775335312, 0.07236466556787491], [-0.07927735894918442, 0.029843095690011978, -0.09713653475046158], [0.08061240613460541, 0.25747111439704895, -0.390447199344635], [-0.2772913873195648, 0.20185072720050812, -0.04198896139860153], [-0.25427359342575073, 0.14852078258991241, 0.11393352597951889], [-0.0448061004281044, 0.15283386409282684, -0.28806182742118835], [-0.049678824841976166, 0.1725880354642868, -0.15446080267429352], [-0.03348846733570099, -0.1642230749130249, -0.09629914164543152], [-0.08127368986606598, -0.1491127461194992, 0.15390215814113617], [0.12811636924743652, 0.06589566916227341, 0.06656257808208466], [-0.05431605875492096, 0.25943100452423096, -0.30551597476005554], [0.05196626856923103, -0.07647950947284698, 0.11151842772960663], [0.15944643318653107, -0.19312937557697296, 0.14560411870479584], [0.02958505228161812, 0.21940985321998596, -0.13516820967197418], [0.09037904441356659, -0.1494649201631546, -0.07295135408639908], [0.05282917618751526, -0.10103322565555573, 0.13506470620632172], [-0.16647879779338837, -0.002743822056800127, 0.16795164346694946], [0.05908539518713951, -0.011012173257768154, -0.05126703530550003], [0.06433819979429245, 0.23109771311283112, -0.11095926910638809], [-0.2607278823852539, 0.10837209224700928, 0.07418453693389893], [-0.19651031494140625, 0.06403882801532745, 0.07039529085159302], [0.10310069471597672, 0.16545505821704865, -0.17262688279151917], [0.003547686617821455, 0.13549786806106567, 0.03187654912471771], [0.0579264834523201, -0.09941114485263824, 0.05060387775301933], [-0.1774112433195114, 0.011213572695851326, 0.054309483617544174], [-0.09872645884752274, -0.01774108037352562, 0.009417629800736904], [-0.11528390645980835, 0.13627800345420837, -0.4867871403694153], [-0.024672681465744972, -0.052712779492139816, 0.009973972104489803], [-0.08055076003074646, 0.08665822446346283, 0.038687240332365036], [-0.13456127047538757, 0.12945277988910675, -0.21580077707767487], [-0.11529262363910675, 0.10940232127904892, -0.12821485102176666], [-0.07097463309764862, -0.07891743630170822, 0.11284776777029037], [-0.08256053924560547, 0.05579008162021637, 0.10140134394168854], [0.05475897714495659, 0.0973595529794693, -0.05794689431786537], [0.06954081356525421, 0.22480788826942444, -0.30156269669532776], [-0.20169106125831604, 0.13171905279159546, -0.007260747719556093], [-0.29144006967544556, 0.006868976633995771, -0.039707548916339874], [-0.041855040937662125, 0.06613640487194061, -0.11968754231929779], [-0.0710999146103859, 0.1637895107269287, 0.027408994734287262], [-0.036580126732587814, 0.07685086131095886, -0.06052539870142937], [-0.12185069918632507, 0.0018798476085066795, 0.00575142540037632], [0.038571733981370926, 0.040760066360235214, 0.017370173707604408], [0.10811355710029602, 0.1418192982673645, -0.37362655997276306], [-0.1292235553264618, -0.09528621286153793, 0.09645917266607285], [-0.06719940155744553, -0.060587573796510696, -0.014208732172846794], [-0.006271063350141048, 0.28845638036727905, -0.2945237159729004], [0.03333330154418945, 0.08023945242166519, -0.023328149691224098], [-0.0016895588487386703, -0.10491641610860825, 0.21215574443340302], [-0.08915191888809204, -0.16612504422664642, 0.1830521672964096], [0.058200668543577194, 0.03070151060819626, -0.13208609819412231], [0.007947259582579136, 0.09927111864089966, -0.2739391624927521], [0.07345348596572876, -0.035372670739889145, 0.16786512732505798], [-0.06418365985155106, -0.04133820906281471, 0.09101996570825577], [0.08041838556528091, 0.18947052955627441, -0.3519876003265381], [-0.019582146778702736, 0.03742380812764168, 0.010635046288371086], [0.14677657186985016, -0.13399598002433777, 0.1527976542711258], [-0.21251066029071808, -0.0340019054710865, 0.15633709728717804], [0.1125621423125267, -0.10628543794155121, 0.05259304866194725], [-0.06838042289018631, 0.054544925689697266, -0.26423054933547974], [-0.20042262971401215, -0.0334097258746624, 0.05316420644521713], [-0.08600004762411118, -0.1967134028673172, 0.23685140907764435], [0.05210282281041145, 0.17299950122833252, -0.17817328870296478], [0.07211097329854965, -0.048480816185474396, -0.004382799379527569], [-0.07155674695968628, -0.16665783524513245, 0.20420964062213898], [-0.10545895248651505, -0.17927873134613037, 0.15464356541633606], [0.055388033390045166, -0.06514918059110641, -0.06723594665527344], [0.16691631078720093, -0.02742631360888481, -0.2882676422595978], [0.004210646729916334, -0.285845547914505, 0.2563698887825012], [-0.23675526678562164, 0.06199963763356209, 0.1061321496963501], [0.12352433800697327, 0.060297392308712006, -0.3099147379398346], [-0.1044476181268692, -0.03485596552491188, -0.002817576052621007], [-0.10759614408016205, 0.03012782335281372, 0.2544804811477661], [-0.15851294994354248, -0.2013714611530304, 0.10501641035079956], [-0.05601360276341438, 0.13650864362716675, 0.12767724692821503], [-0.04188215732574463, 0.08444608747959137, -0.3195164203643799], [0.14364399015903473, -0.1448594033718109, 0.05638859048485756], [0.13627967238426208, -0.09943897277116776, 0.07078998535871506], [0.03514839708805084, 0.07210768014192581, -0.1313200294971466], [0.15686821937561035, -0.04285474494099617, 0.11583370715379715], [-0.006981251761317253, -0.1492040902376175, 0.04129543527960777], [0.02636936865746975, -0.05899323150515556, 0.19074083864688873], [-0.08268028497695923, -0.04356648027896881, -0.04094767943024635], [0.10746101289987564, 0.02454221248626709, -0.16901034116744995], [-0.3330710530281067, -0.013538341037929058, 0.0338926687836647], [-0.13490203022956848, 0.0587044321000576, 0.07727046310901642], [0.04466244950890541, 0.018473632633686066, -0.20507587492465973], [0.10160720348358154, -0.0815809965133667, 0.022361408919095993], [-0.06367818266153336, -0.11930438131093979, 0.22738663852214813], [-0.22536487877368927, 0.022825822234153748, 0.180841863155365], [0.17902009189128876, -0.1232810989022255, 0.015593999065458775], [0.1178237795829773, 0.2236223667860031, -0.2840851843357086], [0.08387582749128342, 0.009845389984548092, -0.021416528150439262], [0.11783041805028915, -0.08078530430793762, 0.0026834907475858927], [-0.04046328365802765, 0.10889194905757904, -0.06608753651380539], [0.1806141436100006, 0.046058136969804764, -0.10809387266635895], [0.15929685533046722, -0.09896160662174225, 0.013612223789095879], [0.0007405289798043668, -0.3375738561153412, 0.034885577857494354], [0.1004142239689827, 0.056043487042188644, -0.14562124013900757], [0.02494937926530838, 0.05320799723267555, -0.3579009175300598], [-0.21569053828716278, -0.15217693150043488, 0.15473386645317078], [-0.1467309594154358, -0.15229681134223938, 0.18548691272735596], [0.047042302787303925, 0.3018231689929962, -0.22056366503238678], [0.10147828608751297, -0.07606851309537888, 0.11764898151159286], [-0.0312633253633976, -0.21852318942546844, 0.0633571445941925], [-0.1880718320608139, -0.01698952727019787, 0.04164431616663933], [0.11491194367408752, -0.059791430830955505, -0.09145042300224304], [-0.0218422319740057, 0.2789635956287384, -0.15817858278751373], [0.02228843793272972, 0.13972559571266174, -0.07289720326662064], [-0.013813372701406479, -0.12408648431301117, -0.03432882949709892], [-0.02872256003320217, 0.19891731441020966, -0.16472071409225464], [0.027033047750592232, 0.015431324951350689, 0.006014592945575714], [0.04714551568031311, -0.09593464434146881, 0.10016161948442459], [0.06908168643712997, -0.16376300156116486, 0.1902180314064026], [-0.05614123120903969, 0.0021547903306782246, 0.11355632543563843], [-0.005107587203383446, 0.20873332023620605, -0.26959502696990967], [0.06480780988931656, -0.14465975761413574, 0.06717303395271301], [0.10523290932178497, -0.16278694570064545, 0.12223190814256668], [0.042356472462415695, 0.2515633702278137, -0.22183842957019806], [0.13831380009651184, -0.06512090563774109, 0.09615181386470795], [0.14535759389400482, -0.09253188222646713, 0.00876263901591301], [0.006314267870038748, -0.15662269294261932, 0.0679609626531601], [-0.003018683986738324, -0.02556796558201313, -0.058190442621707916], [-0.18225136399269104, 0.2595471441745758, -0.22884780168533325], [-0.15109114348888397, -0.12060295790433884, 0.005677305161952972], [-0.022762978449463844, -0.08843833208084106, -0.021759459748864174], [0.06498471647500992, -0.015960881486535072, -0.26669594645500183], [0.19285127520561218, -0.2003116011619568, -0.18403637409210205], [0.13534028828144073, -0.22821325063705444, 0.10950833559036255], [0.013482424430549145, -0.1498408019542694, 0.13501876592636108], [0.021653320640325546, -0.1606493890285492, 0.013388996943831444], [0.022686559706926346, 0.07091481983661652, -0.2035098820924759], [-0.034769561141729355, -0.08653562515974045, 0.21453483402729034], [0.00900441687554121, -0.37667545676231384, 0.18430665135383606], [0.08513153344392776, 0.0670967772603035, -0.2333848625421524], [-0.009494930505752563, -0.21193082630634308, -0.043342817574739456], [-0.1061301976442337, -0.07573450356721878, 0.1453261375427246], [0.09942324459552765, -0.3145064115524292, 0.11998999863862991], [0.019377419725060463, -0.01542696077376604, -0.02598484605550766], [0.08845455199480057, 0.061342690140008926, -0.13206398487091064], [-0.19139431416988373, -0.0030348957516252995, 0.20490914583206177], [-0.15355084836483002, 0.004807010758668184, -0.011564328335225582], [0.005495809018611908, -0.03189583122730255, -0.22516457736492157], [0.09368303418159485, -0.13112017512321472, -0.08516696840524673], [-0.1046077236533165, -0.13293929398059845, -0.016475150361657143], [-0.1212552860379219, 0.02710886485874653, 0.2736695110797882], [0.12580087780952454, -0.1119871437549591, -0.03115611895918846], [-0.04364442825317383, 0.12902259826660156, -0.3758776783943176], [-0.056928910315036774, -0.2579323351383209, 0.058958232402801514], [0.032732751220464706, -0.24005313217639923, 0.0951351597905159], [0.05173160135746002, 0.03699159994721413, -0.10524465143680573], [0.16068215668201447, 0.07072599232196808, -0.13959722220897675], [0.040891557931900024, -0.24042563140392303, 0.17525145411491394], [-0.05919843167066574, -0.07797341793775558, 0.12260359525680542], [0.03791074454784393, -0.09685815870761871, -0.12135554105043411], [0.17510920763015747, 0.24280869960784912, -0.41050592064857483], [-0.2753625214099884, 0.1666422039270401, 0.12027224153280258], [-0.0795934796333313, 0.058996595442295074, 0.050784215331077576], [-0.07200706005096436, 0.13478770852088928, -0.3032398819923401], [-0.10109278559684753, -0.00817045010626316, -0.15874972939491272], [0.13120515644550323, -0.11839445680379868, -0.03583066165447235], [-0.14416208863258362, -0.1346564143896103, 0.17242611944675446], [0.054987892508506775, -0.028065931051969528, 0.057740647345781326], [-0.06320676952600479, 0.10378388315439224, -0.38275274634361267], [-0.008425861597061157, 0.09366093575954437, -0.06674699485301971], [-0.08585850894451141, 0.05398739501833916, 0.04474852979183197], [0.07742632180452347, 0.12096886336803436, -0.1819951981306076], [-0.03928845748305321, -0.07126201689243317, -0.08331307768821716], [-0.003848595777526498, -0.10456356406211853, -0.0726805329322815], [-0.1617634892463684, 0.01265089213848114, 0.1639041155576706], [0.038274556398391724, -0.11957019567489624, -0.045876260846853256], [0.1705542355775833, 0.018861757591366768, -0.2953959107398987], [-0.2081575095653534, -0.006905520800501108, 0.07978537678718567], [0.018315430730581284, -0.22329559922218323, -0.0067109959200024605], [0.1704287976026535, -0.044203851372003555, -0.23389358818531036], [0.034516818821430206, -0.018485447391867638, -0.09147505462169647], [-0.029343198984861374, 0.007033881731331348, 0.09191983938217163], [-0.09915188699960709, -0.2294398844242096, 0.06543367356061935], [-0.09080986678600311, -0.10969758033752441, 0.06920763105154037], [0.17846138775348663, -0.014313888736069202, -0.1030598059296608], [-0.20834508538246155, -0.005477066617459059, -0.023165389895439148], [0.04172098636627197, -0.24439223110675812, 0.030686991289258003], [0.030942576006054878, 0.011711759492754936, -0.080534927546978], [-0.06747721135616302, 0.056313320994377136, -0.08404713124036789], [-0.11633558571338654, -0.009302671067416668, -0.022631771862506866], [-0.2592836618423462, 0.07959914952516556, -0.02933328039944172], [-0.09072821587324142, 0.046172499656677246, -0.10889514535665512], [0.018780620768666267, 0.009698225185275078, -0.1854686737060547], [0.010599167086184025, -0.12648896872997284, 0.15547910332679749], [0.013558120466768742, -0.17462797462940216, 0.017724962905049324], [0.12022905051708221, 0.15069441497325897, -0.09306422621011734], [0.016495665535330772, -0.10011037439107895, -0.13757681846618652], [0.04961276426911354, -0.23228086531162262, 0.2084832489490509], [-0.1221858412027359, 0.055510956794023514, 0.05495263636112213], [0.11875178664922714, -0.17318744957447052, -0.0515860915184021], [-0.05789494141936302, 0.16528001427650452, -0.396291047334671], [-0.23550277948379517, 0.09659724682569504, 0.15669873356819153], [-0.019391464069485664, -0.1443011313676834, 0.21505802869796753], [0.09497608244419098, 0.1769634336233139, -0.02194812335073948], [-0.09756629914045334, 0.03177616372704506, -0.028643600642681122], [0.029918864369392395, -0.09646397083997726, -0.01211198978126049], [0.11876069754362106, -0.261484831571579, 0.17521093785762787], [0.01022255327552557, -0.09631190448999405, 0.14104388654232025], [0.2136523574590683, 0.08337680995464325, -0.3198823034763336], [-0.029579510912299156, -0.0627724751830101, 0.06700637191534042], [0.12027119845151901, -0.06946439296007156, 0.029706986621022224], [-0.01689685508608818, -0.037273820489645004, -0.09288005530834198], [-0.13740839064121246, 0.019093472510576248, 0.0447249561548233], [0.08729785680770874, -0.1010398343205452, -0.022632010281085968], [0.09332451224327087, -0.11551827192306519, 0.20263886451721191], [-0.1528608202934265, 0.11025353521108627, 0.1260831505060196], [0.06023171916604042, 0.03368423134088516, -0.19021174311637878], [-0.16903181374073029, -0.09257425367832184, 0.11665414273738861], [-0.0019872935954481363, -0.23785804212093353, 0.14693041145801544], [0.021368294954299927, 0.11248689144849777, 0.009178034029901028], [-0.1567363739013672, 0.028889980167150497, 0.03271705284714699], [0.11080494523048401, -0.3247734606266022, 0.034965913742780685], [-0.14498887956142426, -0.09286428987979889, 0.048943474888801575], [-0.09626363217830658, -0.05700262263417244, 0.023423682898283005], [-0.12761352956295013, 0.1823044866323471, -0.1868850141763687], [-0.09810470044612885, 0.017995115369558334, 0.0075287772342562675], [-0.018427889794111252, -0.2143235206604004, 0.11034264415502548], [-0.10129842162132263, 0.22382545471191406, -0.017938945442438126], [-0.04839020222425461, 0.016694771125912666, 0.14199058711528778], [0.021347757428884506, -0.08646325021982193, 0.022456439211964607], [-0.06482945382595062, -0.06757894158363342, 0.10035241395235062], [-0.03463216498494148, 0.14047420024871826, 0.09172327071428299], [0.00823667086660862, 0.08371032774448395, -0.0771501287817955], [0.019245032221078873, 0.07458656281232834, 0.065155029296875], [-0.007202454376965761, -0.0006381781422533095, 0.14541956782341003], [0.014031303115189075, 0.12009482830762863, -0.04555587098002434], [-0.16862793266773224, 0.11342326551675797, -0.03371141105890274], [-0.08953514695167542, 0.010170599445700645, 0.011237452737987041], [-0.040699493139982224, -0.04542390629649162, 0.0179133303463459], [-0.04996813088655472, 0.18290187418460846, 0.07686901092529297], [0.012475083582103252, 0.24258971214294434, -0.12759745121002197]], [0.07039744406938553, 0.02729627676308155, -0.07600733637809753]]}]}